{
  "blueprint": [
    4,
    5,
    3,
    1
  ],
  "weight": [
    [
      [],
      [],
      [],
      []
    ],
    [
      [
        -0.21001331508159637,
        -0.22479179501533508,
        0.044796817004680634,
        -0.037750266492366791
      ],
      [
        0.29491923749446869,
        -0.62466299533843994,
        -0.81905247271060944,
        -0.44313573837280273
      ],
      [
        -0.49272786825895309,
        -0.37071704119443893,
        0.049316078424453735,
        -0.14759501069784164
      ],
      [
        -0.092272482812404633,
        0.1287342756986618,
        -0.18804329633712769,
        -0.090995252132415771
      ],
      [
        -0.024941742420196533,
        0.32254868000745773,
        0.28699741512537,
        0.38735745847225189
      ]
    ],
    [
      [
        0.19449090212583542,
        -0.28549367189407349,
        0.13848565518856049,
        0.098309352993965149,
        -0.16379839181900024
      ],
      [
        -0.13159061223268509,
        -0.24852489680051804,
        0.19845940172672272,
        -0.46992088854312897,
        0.28413454443216324
      ],
      [
        -0.10299035906791687,
        -0.0751655176281929,
        0.39701090753078461,
        0.57026681303977966,
        0.25184065103530884
      ]
    ],
    [
      [
        0.50144859403371811,
        -0.02042996883392334,
        -0.12179101258516312
      ]
    ]
  ],
  "bias": [
    [
      -0.0338732,
      0.0431522354,
      0.6381223,
      0.0199229568
    ],
    [
      -0.0302108526,
      0.0420270264,
      0.38039133,
      -0.114623651,
      -0.429291964
    ],
    [
      -0.0146292746,
      -0.0246139318,
      0.1213495
    ],
    [
      -0.484589159
    ]
  ],
  "activation": [
    [
      0.1849110871553421,
      -0.12060550600290298,
      0.2361028864979744,
      -0.21543851494789124
    ],
    [
      0.24640838801860809,
      0.15069118142127991,
      0.07504948228597641,
      -0.37804102897644043,
      0.00076089799404144287
    ],
    [
      0.00013943016529083252,
      -0.044799387454986572,
      0.28118443489074707
    ],
    [
      -0.013962209224700928
    ]
  ]
}